{ "nodeid": 0, "depth": 0, "name": "GR", "split_condition": 61.5982971, "yes": 1, "no": 2, "missing": 1, "children": [
  { "nodeid": 1, "depth": 1, "name": "CAL", "split_condition": 12.6696835, "yes": 3, "no": 4, "missing": 3, "children": [
    { "nodeid": 3, "depth": 2, "name": "PHIN", "split_condition": 0.201575994, "yes": 7, "no": 8, "missing": 7, "children": [
      { "nodeid": 7, "depth": 3, "name": "RESD", "split_condition": 3.90506792, "yes": 15, "no": 16, "missing": 15, "children": [
        { "nodeid": 15, "name":"leafx", "leaf": -0.041618228 },
        { "nodeid": 16, "name":"leafx", "leaf": -0.0554136671 }
      ]},
      { "nodeid": 8, "depth": 3, "name": "RESD", "split_condition": 1.65087724, "yes": 17, "no": 18, "missing": 17, "children": [
        { "nodeid": 17, "name":"leafx", "leaf": 0.0285365842 },
        { "nodeid": 18, "name":"leafx", "leaf": -0.0274594594 }
      ]}
    ]},
    { "nodeid": 4, "depth": 2, "name": "RESD", "split_condition": 1.96978712, "yes": 9, "no": 10, "missing": 9, "children": [
      { "nodeid": 9, "depth": 3, "name": "CAL", "split_condition": 20.9503498, "yes": 19, "no": 20, "missing": 19, "children": [
        { "nodeid": 19, "name":"leafx", "leaf": -0.0212368034 },
        { "nodeid": 20, "name":"leafx", "leaf": 0.0373821966 }
      ]},
      { "nodeid": 10, "depth": 3, "name": "CAL", "split_condition": 18.607399, "yes": 21, "no": 22, "missing": 21, "children": [
        { "nodeid": 21, "name":"leafx", "leaf": 0.00950009469 },
        { "nodeid": 22, "name":"leafx", "leaf": -0.0389247313 }
      ]}
    ]}
  ]},
  { "nodeid": 2, "depth": 1, "name": "RESD", "split_condition": 2.25352097, "yes": 5, "no": 6, "missing": 5, "children": [
    { "nodeid": 5, "depth": 2, "name": "GR", "split_condition": 80.0988998, "yes": 11, "no": 12, "missing": 11, "children": [
      { "nodeid": 11, "depth": 3, "name": "PHIN", "split_condition": 0.393723488, "yes": 23, "no": 24, "missing": 23, "children": [
        { "nodeid": 23, "name":"leafx", "leaf": 0.0216366556 },
        { "nodeid": 24, "name":"leafx", "leaf": -0.0169685762 }
      ]},
      { "nodeid": 12, "depth": 3, "name": "CAL", "split_condition": 12.118, "yes": 25, "no": 26, "missing": 25, "children": [
        { "nodeid": 25, "name":"leafx", "leaf": 0.020117756 },
        { "nodeid": 26, "name":"leafx", "leaf": 0.0413688459 }
      ]}
    ]},
    { "nodeid": 6, "depth": 2, "name": "CAL", "split_condition": 12.8490257, "yes": 13, "no": 14, "missing": 13, "children": [
      { "nodeid": 13, "depth": 3, "name": "CAL", "split_condition": 10.4969997, "yes": 27, "no": 28, "missing": 27, "children": [
        { "nodeid": 27, "name":"leafx", "leaf": 0.00667605596 },
        { "nodeid": 28, "name":"leafx", "leaf": -0.0257683638 }
      ]},
      { "nodeid": 14, "depth": 3, "name": "RESM", "split_condition": 2.23098159, "yes": 29, "no": 30, "missing": 29, "children": [
        { "nodeid": 29, "name":"leafx", "leaf": 0.0370833352 },
        { "nodeid": 30, "name":"leafx", "leaf": 0.0125581389 }
      ]}
    ]}
  ]}
]}